<?xml version="1.0"?>
<MethodSetup Method="MLP::MLP">
  <GeneralInfo>
    <Info name="TMVA Release" value="4.2.0 [262656]"/>
    <Info name="ROOT Release" value="6.02/05 [393733]"/>
    <Info name="Creator" value="aackert"/>
    <Info name="Date" value="Sun Mar 12 19:22:26 2017"/>
    <Info name="Host" value="Linux cmsbuild12.cern.ch 2.6.32-573.7.1.el6.x86_64 #1 SMP Wed Sep 23 10:12:03 CEST 2015 x86_64 x86_64 x86_64 GNU/Linux"/>
    <Info name="Dir" value="/afs/cern.ch/work/a/aackert/private/CMSSW_7_4_15/src/MVA/exercises/03_TMVA"/>
    <Info name="Training events" value="20000"/>
    <Info name="TrainingTime" value="3.41305964e+02"/>
    <Info name="AnalysisType" value="Classification"/>
  </GeneralInfo>
  <Options>
    <Option name="NCycles" modified="No">500</Option>
    <Option name="HiddenLayers" modified="Yes">15</Option>
    <Option name="NeuronType" modified="No">sigmoid</Option>
    <Option name="RandomSeed" modified="No">1</Option>
    <Option name="EstimatorType" modified="No">MSE</Option>
    <Option name="NeuronInputType" modified="No">sum</Option>
    <Option name="V" modified="Yes">False</Option>
    <Option name="VerbosityLevel" modified="No">Default</Option>
    <Option name="VarTransform" modified="Yes">N</Option>
    <Option name="H" modified="Yes">False</Option>
    <Option name="CreateMVAPdfs" modified="No">False</Option>
    <Option name="IgnoreNegWeightsInTraining" modified="No">False</Option>
    <Option name="TrainingMethod" modified="Yes">BFGS</Option>
    <Option name="LearningRate" modified="No">2.000000e-02</Option>
    <Option name="DecayRate" modified="No">1.000000e-02</Option>
    <Option name="TestRate" modified="No">10</Option>
    <Option name="EpochMonitoring" modified="No">False</Option>
    <Option name="Sampling" modified="No">1.000000e+00</Option>
    <Option name="SamplingEpoch" modified="No">1.000000e+00</Option>
    <Option name="SamplingImportance" modified="No">1.000000e+00</Option>
    <Option name="SamplingTraining" modified="No">True</Option>
    <Option name="SamplingTesting" modified="No">False</Option>
    <Option name="ResetStep" modified="No">50</Option>
    <Option name="Tau" modified="No">3.000000e+00</Option>
    <Option name="BPMode" modified="No">sequential</Option>
    <Option name="BatchSize" modified="No">-1</Option>
    <Option name="ConvergenceImprove" modified="No">1.000000e-30</Option>
    <Option name="ConvergenceTests" modified="No">-1</Option>
    <Option name="UseRegulator" modified="No">False</Option>
    <Option name="UpdateLimit" modified="No">10000</Option>
    <Option name="CalculateErrors" modified="No">False</Option>
    <Option name="WeightRange" modified="No">1.000000e+00</Option>
  </Options>
  <Variables NVar="4">
    <Variable VarIndex="0" Expression="P" Label="P" Title="P" Unit="" Internal="P" Type="F" Min="6.00310516e+01" Max="1.82305090e+03"/>
    <Variable VarIndex="1" Expression="Ih" Label="Ih" Title="Ih" Unit="" Internal="Ih" Type="F" Min="8.30619454e-01" Max="4.92651398e+02"/>
    <Variable VarIndex="2" Expression="eta" Label="eta" Title="eta" Unit="" Internal="eta" Type="F" Min="-2.09951782e+00" Max="2.09983993e+00"/>
    <Variable VarIndex="3" Expression="TOF" Label="TOF" Title="TOF" Unit="" Internal="TOF" Type="F" Min="1.02542365e+00" Max="4.60702197e+03"/>
  </Variables>
  <Spectators NSpec="0"/>
  <Classes NClass="2">
    <Class Name="Signal" Index="0"/>
    <Class Name="Background" Index="1"/>
  </Classes>
  <Transformations NTransformations="1">
    <Transform Name="Normalize">
      <Selection>
        <Input NInputs="4">
          <Input Type="Variable" Label="P" Expression="P"/>
          <Input Type="Variable" Label="Ih" Expression="Ih"/>
          <Input Type="Variable" Label="eta" Expression="eta"/>
          <Input Type="Variable" Label="TOF" Expression="TOF"/>
        </Input>
        <Output NOutputs="4">
          <Output Type="Variable" Label="P" Expression="P"/>
          <Output Type="Variable" Label="Ih" Expression="Ih"/>
          <Output Type="Variable" Label="eta" Expression="eta"/>
          <Output Type="Variable" Label="TOF" Expression="TOF"/>
        </Output>
      </Selection>
      <Class ClassIndex="0">
        <Ranges>
          <Range Index="0" Min="1.2172439575195312e+02" Max="1.8230509033203125e+03"/>
          <Range Index="1" Min="2.7845163345336914e+00" Max="2.8496425628662109e+01"/>
          <Range Index="2" Min="-2.0992739200592041e+00" Max="2.0998399257659912e+00"/>
          <Range Index="3" Min="1.0254236459732056e+00" Max="3.7029283046722412e+00"/>
        </Ranges>
      </Class>
      <Class ClassIndex="1">
        <Ranges>
          <Range Index="0" Min="6.0031051635742188e+01" Max="1.1407614746093750e+03"/>
          <Range Index="1" Min="8.3061945438385010e-01" Max="4.9265139770507812e+02"/>
          <Range Index="2" Min="-2.0995178222656250e+00" Max="2.0989584922790527e+00"/>
          <Range Index="3" Min="1.0500003099441528e+00" Max="4.6070219726562500e+03"/>
        </Ranges>
      </Class>
      <Class ClassIndex="2">
        <Ranges>
          <Range Index="0" Min="6.0031051635742188e+01" Max="1.8230509033203125e+03"/>
          <Range Index="1" Min="8.3061945438385010e-01" Max="4.9265139770507812e+02"/>
          <Range Index="2" Min="-2.0995178222656250e+00" Max="2.0998399257659912e+00"/>
          <Range Index="3" Min="1.0254236459732056e+00" Max="4.6070219726562500e+03"/>
        </Ranges>
      </Class>
    </Transform>
  </Transformations>
  <MVAPdfs/>
  <Weights>
    <Layout NLayers="3">
      <Layer Index="0" NNeurons="5">
        <Neuron NSynapses="15">
          -1.2472298181087433e+00 2.8158074091143885e+00 -7.7046668784647443e-01 2.1434308234524728e+00 -2.8424298774863646e+00 -1.7722750409958854e+00 8.7230653665717295e-01 7.1720884009365573e+00 -6.7686329759421033e+00 -4.9210024550989956e-01 -5.0990372127247010e+00 -1.8404196489444000e-01 -1.5086120297200734e+00 -1.8624021889669924e+00 -2.1209927790948515e+00 
        </Neuron>
        <Neuron NSynapses="15">
          4.4077205643967234e+00 3.0387089436764021e+00 1.6109176112577043e+01 5.2486071449804317e-01 3.8448022410808118e+00 4.8254362540802975e-01 -1.8172417704634694e+00 6.3268314805520056e+00 5.3989617343730165e+00 -2.7286986321090092e+00 -3.2645090919934709e+00 5.8958144300269684e+00 -1.6978707408576763e+00 -2.0452200849454343e+01 3.3038272221624925e+00 
        </Neuron>
        <Neuron NSynapses="15">
          2.7329630236388760e+00 2.9772599580423931e-01 -1.2638576186757147e-01 5.2706433118334217e-01 -5.3278518865819524e-01 4.0259710740384802e-01 -1.6460002241544838e+00 1.1395779474016878e+00 3.2857449714575675e+00 1.8545841447291793e+00 2.9736589043521060e+00 -4.3694435858874261e+00 1.3537161352235350e+00 1.8197530795839269e-02 6.1795292621071707e-01 
        </Neuron>
        <Neuron NSynapses="15">
          -5.3426703230126806e+00 -9.0011635387682487e-01 -9.5698803161938937e+00 1.0787563815669101e+00 2.3837103256602834e+00 -1.4314739139808290e+00 -9.8025956590982544e-01 -4.7351027995867412e+00 8.1112555007197185e-01 -2.1475793195505002e-01 4.8088071667088546e+00 -4.2160197204000420e+00 -1.7411804622659957e+00 8.7759415247442440e+00 -3.7242755036448472e+00 
        </Neuron>
        <Neuron NSynapses="15">
          -2.6308963574304194e+00 -1.6042469604949938e+00 4.8720774206818405e+00 2.9191917625870882e+00 4.4072521521428172e+00 1.7882586705130072e+00 2.2343244101008324e+00 3.7035528236709396e+00 -2.0526824939441037e+00 -1.6908512322006947e-01 -1.5905041577532160e+00 2.1213542562952243e+00 1.4146208528683479e+00 -1.2626086088716937e+01 -1.0002085241364864e+00 
        </Neuron>
      </Layer>
      <Layer Index="1" NNeurons="16">
        <Neuron NSynapses="1">
          -3.6699175346741133e+00 
        </Neuron>
        <Neuron NSynapses="1">
          1.9150448529772088e+00 
        </Neuron>
        <Neuron NSynapses="1">
          -1.0400681122862142e+01 
        </Neuron>
        <Neuron NSynapses="1">
          -9.6657662087987006e-01 
        </Neuron>
        <Neuron NSynapses="1">
          4.0185953152107405e+00 
        </Neuron>
        <Neuron NSynapses="1">
          2.0391332075038715e+00 
        </Neuron>
        <Neuron NSynapses="1">
          2.7030740891729659e+00 
        </Neuron>
        <Neuron NSynapses="1">
          4.1012057893473314e-01 
        </Neuron>
        <Neuron NSynapses="1">
          1.3453759649449115e+00 
        </Neuron>
        <Neuron NSynapses="1">
          -7.4677763561987898e-01 
        </Neuron>
        <Neuron NSynapses="1">
          1.3405874775057769e+00 
        </Neuron>
        <Neuron NSynapses="1">
          -1.2337421889292022e+00 
        </Neuron>
        <Neuron NSynapses="1">
          7.6875303379040016e-01 
        </Neuron>
        <Neuron NSynapses="1">
          -1.0749508435307433e+01 
        </Neuron>
        <Neuron NSynapses="1">
          4.5373976894609607e+00 
        </Neuron>
        <Neuron NSynapses="1">
          2.1761763149115748e-01 
        </Neuron>
      </Layer>
      <Layer Index="2" NNeurons="1">
        <Neuron NSynapses="0"/>
      </Layer>
    </Layout>
  </Weights>
</MethodSetup>
